=== Run information ===

Scheme:       weka.classifiers.trees.REPTree -M 2 -V 0.001 -N 5 -S 1 -L -1 -I 0.0 -R
Relation:     Datiok_20210617-weka.filters.unsupervised.attribute.Remove-R3-weka.filters.unsupervised.attribute.Remove-R44
Instances:    824
Attributes:   44
              age
              sex
              syn_adm_fever
              syn_adm_chills
              syn_adm_hackingcough
              syn_adm_phlegmcough
              syn_adm_conjunctivitis
              syn_adm_rhinorrhoea
              syn_adm_headache
              syn_adm_musclepain
              syn_adm_tiredness
              syn_adm_nausea
              syn_adm_vomiting
              syn_adm_diarrhea
              syn_adm_dyspnoea
              syn_adm_haemoptysis
              syn_adm_haematemesis
              syn_adm_ageusia
              syn_adm_anosmia
              syn_adm_abdominalpain
              syn_adm_thoracicpain
              syn_adm_pharingalpain
              copat_none
              copat_COPD
              copat_diabetes
              copat_highbloodpressure
              copat_coronarydisease
              copat_cerebrovasculardisease
              copat_hepatitisB
              copat_activecancerlast5years
              copat_chronickidneyfailure
              copat_immunodeficiency
              copat_ischemicheartdisease
              copat_stroke
              copat_dementia
              copat_chronicepaticdisease
              copat_hiv
              copat_atrialfibrillation
              copat_deepveinthrombosis
              copat_pulmonaryembolism
              copat_obesity
              copat_dyslipidaemia
              charlsoncomorbidityindex
              dischargetype
Test mode:    10-fold cross-validation

=== Classifier model (full training set) ===


REPTree
============

charlsoncomorbidityindex < 3.5 : discharge (301/17) [73/3]
charlsoncomorbidityindex >= 3.5
|   charlsoncomorbidityindex < 4.5
|   |   age < 71.5 : discharge (21/3) [2/1]
|   |   age >= 71.5 : death (100/44) [23/8]
|   charlsoncomorbidityindex >= 4.5
|   |   age < 80.5
|   |   |   copat_COPD = Yes : death (23/3) [8/2]
|   |   |   copat_COPD = No
|   |   |   |   copat_cerebrovasculardisease = No
|   |   |   |   |   age < 61 : discharge (9/2) [3/1]
|   |   |   |   |   age >= 61 : death (62/29) [18/7]
|   |   |   |   copat_cerebrovasculardisease = Yes : death (4/0) [0/0]
|   |   age >= 80.5 : death (139/27) [38/14]

Size of the tree : 15

Time taken to build model: 0.04 seconds

=== Stratified cross-validation ===
=== Summary ===

Correctly Classified Instances         650               78.8835 %
Incorrectly Classified Instances       174               21.1165 %
Kappa statistic                          0.5632
Mean absolute error                      0.2736
Root mean squared error                  0.3901
Relative absolute error                 58.4292 %
Root relative squared error             80.6292 %
Total Number of Instances              824     

=== Detailed Accuracy By Class ===

                 TP Rate  FP Rate  Precision  Recall   F-Measure  MCC      ROC Area  PRC Area  Class
                 0,799    0,217    0,687      0,799    0,739      0,568    0,836     0,688     death
                 0,783    0,201    0,867      0,783    0,823      0,568    0,836     0,882     discharge
Weighted Avg.    0,789    0,207    0,800      0,789    0,791      0,568    0,836     0,809     

=== Confusion Matrix ===

   a   b   <-- classified as
 246  62 |   a = death
 112 404 |   b = discharge

